<?xml version="1.0"?>
<opencv_storage>
<myhaar type_id="opencv-haar-classifier">
  <size>
    24 24</size>
  <stages>
    <_>
      <trees>
        <_>
          <_>
            <feature>
              <rects>
                <_>
                  6 1 12 20 -1.</_>
                <_>
                  6 11 12 10 2.</_></rects>
              <tilted>0</tilted></feature>
            <threshold>0.2360574007034302</threshold>
            <left_val>-1.</left_val>
            <right_val>0.9900010824203491</right_val></_></_></trees>
      <stage_threshold>0.9900010824203491</stage_threshold>
      <parent>-1</parent>
      <next>-1</next></_>
    <_>
      <trees>
        <_>
          <_>
            <feature>
              <rects>
                <_>
                  6 13 12 9 -1.</_>
                <_>
                  10 16 4 3 9.</_></rects>
              <tilted>0</tilted></feature>
            <threshold>0.1805848032236099</threshold>
            <left_val>-1.</left_val>
            <right_val>0.9605922102928162</right_val></_></_></trees>
      <stage_threshold>0.9605922102928162</stage_threshold>
      <parent>0</parent>
      <next>-1</next></_>
    <_>
      <trees>
        <_>
          <_>
            <feature>
              <rects>
                <_>
                  0 0 20 16 -1.</_>
                <_>
                  5 0 10 16 2.</_></rects>
              <tilted>0</tilted></feature>
            <threshold>6.2201488763093948e-003</threshold>
            <left_val>-1.</left_val>
            <right_val>1.</right_val></_></_>
        <_>
          <_>
            <feature>
              <rects>
                <_>
                  21 0 3 18 -1.</_>
                <_>
                  22 6 1 6 9.</_></rects>
              <tilted>0</tilted></feature>
            <threshold>-0.0152102196589112</threshold>
            <left_val>1.</left_val>
            <right_val>-1.0000009536743164</right_val></_></_></trees>
      <stage_threshold>2.</stage_threshold>
      <parent>1</parent>
      <next>-1</next></_>
    <_>
      <trees>
        <_>
          <_>
            <feature>
              <rects>
                <_>
                  4 14 6 1 -1.</_>
                <_>
                  6 14 2 1 3.</_></rects>
              <tilted>0</tilted></feature>
            <threshold>4.2600231245160103e-003</threshold>
            <left_val>-1.</left_val>
            <right_val>0.9227061271667481</right_val></_></_></trees>
      <stage_threshold>0.9227061271667481</stage_threshold>
      <parent>2</parent>
      <next>-1</next></_>
    <_>
      <trees>
        <_>
          <_>
            <feature>
              <rects>
                <_>
                  2 4 1 8 -1.</_>
                <_>
                  2 8 1 4 2.</_></rects>
              <tilted>0</tilted></feature>
            <threshold>-2.4539749138057232e-003</threshold>
            <left_val>0.8341013193130493</left_val>
            <right_val>-0.9999970197677612</right_val></_></_></trees>
      <stage_threshold>0.8341013193130493</stage_threshold>
      <parent>3</parent>
      <next>-1</next></_></stages></myhaar>
</opencv_storage>
