<?xml version="1.0"?>
<opencv_storage>
<myhaar type_id="opencv-haar-classifier">
  <size>
    24 24</size>
  <stages>
    <_>
      <trees>
        <_>
          <_>
            <feature>
              <rects>
                <_>
                  0 9 22 15 -1.</_>
                <_>
                  0 14 22 5 3.</_></rects>
              <tilted>0</tilted></feature>
            <threshold>0.3053728044033051</threshold>
            <left_val>-1.</left_val>
            <right_val>1.</right_val></_></_></trees>
      <stage_threshold>1.</stage_threshold>
      <parent>-1</parent>
      <next>-1</next></_>
    <_>
      <trees>
        <_>
          <_>
            <feature>
              <rects>
                <_>
                  0 16 2 4 -1.</_>
                <_>
                  1 16 1 4 2.</_></rects>
              <tilted>0</tilted></feature>
            <threshold>5.4582520388066769e-003</threshold>
            <left_val>-1.</left_val>
            <right_val>0.9414634108543396</right_val></_></_></trees>
      <stage_threshold>0.9414634108543396</stage_threshold>
      <parent>0</parent>
      <next>-1</next></_>
    <_>
      <trees>
        <_>
          <_>
            <feature>
              <rects>
                <_>
                  0 1 9 3 -1.</_>
                <_>
                  3 2 3 1 9.</_></rects>
              <tilted>0</tilted></feature>
            <threshold>4.3078471207991242e-004</threshold>
            <left_val>-1.</left_val>
            <right_val>0.9999988079071045</right_val></_></_>
        <_>
          <_>
            <feature>
              <rects>
                <_>
                  21 0 3 9 -1.</_>
                <_>
                  22 3 1 3 9.</_></rects>
              <tilted>0</tilted></feature>
            <threshold>0.0167828202247620</threshold>
            <left_val>-0.9543114900588989</left_val>
            <right_val>1.</right_val></_></_>
        <_>
          <_>
            <feature>
              <rects>
                <_>
                  0 0 1 2 -1.</_>
                <_>
                  0 1 1 1 2.</_></rects>
              <tilted>0</tilted></feature>
            <threshold>-1.1878049699589610e-003</threshold>
            <left_val>1.</left_val>
            <right_val>-1.</right_val></_></_>
        <_>
          <_>
            <feature>
              <rects>
                <_>
                  20 2 4 4 -1.</_>
                <_>
                  22 2 2 2 2.</_>
                <_>
                  20 4 2 2 2.</_></rects>
              <tilted>0</tilted></feature>
            <threshold>-1.5117509756237268e-003</threshold>
            <left_val>1.</left_val>
            <right_val>-0.9543120265007019</right_val></_></_>
        <_>
          <_>
            <feature>
              <rects>
                <_>
                  0 1 4 6 -1.</_>
                <_>
                  0 1 2 3 2.</_>
                <_>
                  2 4 2 3 2.</_></rects>
              <tilted>0</tilted></feature>
            <threshold>-7.1161537198349833e-004</threshold>
            <left_val>1.</left_val>
            <right_val>-1.0000020265579224</right_val></_></_></trees>
      <stage_threshold>1.0456869602203369</stage_threshold>
      <parent>1</parent>
      <next>-1</next></_>
    <_>
      <trees>
        <_>
          <_>
            <feature>
              <rects>
                <_>
                  3 3 3 10 -1.</_>
                <_>
                  4 3 1 10 3.</_></rects>
              <tilted>0</tilted></feature>
            <threshold>-0.0132076097652316</threshold>
            <left_val>0.8773583769798279</left_val>
            <right_val>-0.9999958276748657</right_val></_></_></trees>
      <stage_threshold>0.8773583769798279</stage_threshold>
      <parent>2</parent>
      <next>-1</next></_></stages></myhaar>
</opencv_storage>
